[
    [
        {
            "id": "1.1",
            "weights": [
                -0.454255687470317,
                0.7360015262941856
            ],
            "bias": 1.4260902899300583
        },
        {
            "id": "1.2",
            "weights": [
                3.9201823620019844,
                4.102460137296454
            ],
            "bias": -1.4556392841345696
        },
        {
            "id": "1.3",
            "weights": [
                3.0766116638864243,
                2.409400245029772
            ],
            "bias": -3.949751463761618
        },
        {
            "id": "1.4",
            "weights": [
                -0.1863600219640207,
                0.28020724444726136
            ],
            "bias": 1.4809126897514209
        },
        {
            "id": "1.5",
            "weights": [
                -2.1046975279014317,
                -2.957985418680116
            ],
            "bias": 3.1206967363343945
        }
    ],
    [
        {
            "id": "2.1",
            "weights": [
                -0.7813417103972811,
                4.9897802829214895,
                4.8542512325408955,
                -0.2057137231569465,
                -3.0665576072529674
            ],
            "bias": 0.0763144678100004
        },
        {
            "id": "2.2",
            "weights": [
                1.4617730528988007,
                -2.6694716999620094,
                2.3892090448760706,
                0.19135396586895245,
                -0.29960963363498816
            ],
            "bias": 0.2944775109717965
        },
        {
            "id": "2.3",
            "weights": [
                0.8549970412265525,
                1.3702249578904695,
                0.19484821531923882,
                0.32212739003702173,
                1.009621360178636
            ],
            "bias": -0.5112970792047167
        },
        {
            "id": "2.4",
            "weights": [
                -0.9178568906184453,
                1.1531609782264636,
                -4.486418529927151,
                0.7571020299998961,
                4.569764013686647
            ],
            "bias": -0.12824738412913028
        },
        {
            "id": "2.5",
            "weights": [
                0.4254125303024505,
                1.2730745864968356,
                -1.8833256994662964,
                -1.3016765075602486,
                -0.4310692219210316
            ],
            "bias": -0.08481303247803224
        }
    ],
    [
        {
            "id": "3.1",
            "weights": [
                5.649934485558734,
                -5.981647524372179,
                -1.1441700438420561,
                5.668664250933115,
                1.5747076960893411
            ],
            "bias": -4.553820569276658
        }
    ]
]