[
    [
        {
            "id": "1.1",
            "weights": [
                0.27138000400932255
            ],
            "bias": -0.4022971851585565
        },
        {
            "id": "1.2",
            "weights": [
                -0.421735657498755
            ],
            "bias": 0.8029842069148555
        },
        {
            "id": "1.3",
            "weights": [
                1.886513251070902
            ],
            "bias": 1.5334562524500395
        },
        {
            "id": "1.4",
            "weights": [
                -0.5222473695533364
            ],
            "bias": -0.6990449052373688
        },
        {
            "id": "1.5",
            "weights": [
                -0.38702729620255144
            ],
            "bias": 1.1589257818316827
        },
        {
            "id": "1.6",
            "weights": [
                -0.38061952531714016
            ],
            "bias": -0.25965713104837346
        },
        {
            "id": "1.7",
            "weights": [
                -1.6473963102458626
            ],
            "bias": -1.3314674341605215
        },
        {
            "id": "1.8",
            "weights": [
                0.648281886284635
            ],
            "bias": 1.6821748697424757
        },
        {
            "id": "1.9",
            "weights": [
                0.6562566279836964
            ],
            "bias": 1.2034389510839736
        },
        {
            "id": "1.10",
            "weights": [
                0.055686658088367265
            ],
            "bias": -0.7808597492231637
        },
        {
            "id": "1.11",
            "weights": [
                1.0675741085455441
            ],
            "bias": 1.87622483675163
        },
        {
            "id": "1.12",
            "weights": [
                -0.6688999184624856
            ],
            "bias": 1.9999215610368877
        },
        {
            "id": "1.13",
            "weights": [
                -1.7786760392540086
            ],
            "bias": 1.147388569920903
        },
        {
            "id": "1.14",
            "weights": [
                0.35820889189152394
            ],
            "bias": -0.4700231799694298
        },
        {
            "id": "1.15",
            "weights": [
                0.7673673764673483
            ],
            "bias": -2.09365269246874
        },
        {
            "id": "1.16",
            "weights": [
                -0.3199073845749192
            ],
            "bias": 0.19557454897749388
        }
    ],
    [
        {
            "id": "2.1",
            "weights": [
                1.5073716479019408,
                -0.527001726558923,
                -0.82673555252235,
                -0.51757319658596,
                0.9225777574223548,
                0.30925281067731236,
                -0.5131667976843919,
                0.5675742906417202,
                0.14121487731379156,
                0.9894159204641889,
                -0.6438399187100623,
                -0.3399339600968671,
                -0.3542697154607945,
                -1.4346705373020245,
                0.3234795530607467,
                0.2471110569245841
            ],
            "bias": 0.023414849750338248
        },
        {
            "id": "2.2",
            "weights": [
                -0.2632183270552416,
                -1.536238603220204,
                -1.2909152827688621,
                -0.24419250054884242,
                -0.9126392202613647,
                -0.2045198186825282,
                0.9780339043575605,
                1.7457432232493448,
                0.03220581209445805,
                0.27440566555845625,
                -0.23717394002541733,
                -2.1696382734781183,
                0.6594325380906739,
                0.035613773157820196,
                2.5814524316523526,
                -0.2771028756163781
            ],
            "bias": 0.14762022338029088
        },
        {
            "id": "2.3",
            "weights": [
                -0.02285648475266449,
                -1.1592733587157664,
                1.15772800782824,
                0.7639500059673371,
                0.8210100348228816,
                -0.8994870069975923,
                1.409825130174267,
                -1.3907401033952385,
                0.5867708294704364,
                2.2036050615316003,
                -0.9922559695662388,
                -0.5473158650556489,
                0.11885883299776609,
                -0.5009286466296603,
                -1.5506662534340556,
                0.0783485355793457
            ],
            "bias": -1.0411239129752918
        },
        {
            "id": "2.4",
            "weights": [
                0.602659113895589,
                -0.8886406641645903,
                1.6302421060628827,
                -0.8276819211943007,
                -0.20155467892388645,
                0.7733096717787111,
                -1.2478069007316872,
                0.5082175003706064,
                1.508942441941552,
                -1.5090184923883632,
                0.4657403806797519,
                0.3330643150180671,
                0.9503618382532935,
                -1.1272127893444857,
                -1.2661746882504235,
                0.51924901450574
            ],
            "bias": 0.4388071189314877
        },
        {
            "id": "2.5",
            "weights": [
                0.25853157878741995,
                0.3870486084434615,
                -0.6399467467612048,
                0.24780397142221633,
                0.32780640924796023,
                -0.6895372833315075,
                1.866476555369308,
                0.5104042978988558,
                -1.1601020236804136,
                0.6629707511146629,
                -0.9379721763024038,
                0.8417748663959836,
                1.1596932156484419,
                -0.8114156602930848,
                0.9507373389939331,
                0.44635116989926743
            ],
            "bias": 0.8649139327984953
        },
        {
            "id": "2.6",
            "weights": [
                1.9120199041259263,
                -0.7715424220329218,
                -1.4631298898208431,
                -1.391400625917173,
                -1.1601465709523606,
                -0.6309139551994051,
                0.2505235327974105,
                0.4216949994542795,
                0.7673598176079016,
                0.02866323521476592,
                1.5997572666866537,
                -0.8789874508056447,
                3.062941497969613,
                0.5846200467098945,
                -0.755456339252878,
                -1.6197110880587722
            ],
            "bias": -0.052778981395923234
        },
        {
            "id": "2.7",
            "weights": [
                -0.25848072678543405,
                0.7759905588032349,
                0.6834230953464683,
                -0.10652180156382239,
                -0.828247166490276,
                -1.4784399118356495,
                -0.6037747173798852,
                0.8812667498057515,
                0.2234515383586585,
                -1.2836624010588735,
                0.1935762044344788,
                0.4917463704859044,
                -1.071982954106105,
                0.13079222570650187,
                -0.006239014023161515,
                -1.0841878205217732
            ],
            "bias": 0.38707379082820337
        },
        {
            "id": "2.8",
            "weights": [
                0.5777741395265641,
                1.2438587147354396,
                1.0493480045362285,
                -1.226035487205149,
                -0.8151720070675326,
                0.6598124787985438,
                0.6904867147446159,
                0.5548842282291426,
                3.911312164469287,
                0.5957460385939973,
                1.1660166518198212,
                1.1187037056176459,
                0.8098927134898612,
                -0.2814429739245864,
                0.7621130297899354,
                -0.6194222770429036
            ],
            "bias": -0.07024476761202325
        },
        {
            "id": "2.9",
            "weights": [
                -0.4246237462446571,
                0.17839313923937905,
                2.344647104031959,
                -1.8245812972791735,
                0.7846428242034265,
                -1.56523345630788,
                -0.4023731074243638,
                1.2478643103959401,
                0.20514674291756518,
                -1.0281014465424265,
                -0.5412483635542564,
                0.7994780082242111,
                -0.5860948580417583,
                0.2853845901170388,
                0.06405528359392708,
                -0.5766846019527017
            ],
            "bias": 2.2854841806364807
        },
        {
            "id": "2.10",
            "weights": [
                0.7377402265837902,
                -2.096039577660557,
                0.48351790856716426,
                -0.7844154225700251,
                0.9195902571020217,
                -0.8513520971421721,
                -0.3316974397432992,
                0.6488271340906454,
                0.9588391868093692,
                -1.1294744522181002,
                -0.20288870043030421,
                -0.45505234865729344,
                -0.7898625096389513,
                1.830601981930712,
                0.44252010561468713,
                -1.3039423491257232
            ],
            "bias": 0.9946261625029403
        },
        {
            "id": "2.11",
            "weights": [
                2.0915148919921682,
                1.197692134469525,
                -1.5743998912360782,
                -0.3052196302929339,
                1.3822715475444136,
                -0.5409837318671473,
                0.6448155979284208,
                0.7192289202459768,
                -0.9708547591562214,
                -0.06357282135087879,
                -3.345090523746359,
                -0.8718887027024951,
                -0.1110940260945684,
                -1.2680083671468607,
                1.6076819586676223,
                -1.2679893980441508
            ],
            "bias": -0.32004471151849834
        },
        {
            "id": "2.12",
            "weights": [
                -0.020054784348402185,
                1.4258701697417802,
                -1.9935765218722157,
                1.25949251949728,
                -0.15664595028845807,
                -0.9717830475126581,
                0.7838492855891129,
                -0.06236957394240334,
                -0.794965386865777,
                -0.0406889599115234,
                -0.650073566742068,
                -0.02915368879528957,
                0.6956847536382944,
                1.4710580107547602,
                -1.2829993789754943,
                2.1020906286799206
            ],
            "bias": -2.1574951211518845
        },
        {
            "id": "2.13",
            "weights": [
                -0.14469973854020554,
                0.596834904969549,
                0.29124185700438404,
                -0.6207962507827637,
                -0.2058962286025026,
                -0.4891782538609765,
                -0.5865497888656185,
                0.8657135620041502,
                0.3793324692381182,
                -0.689356415758576,
                0.9249956599709626,
                0.31650632076647167,
                0.8154452889718652,
                0.6410216496969877,
                -0.8233909277833112,
                -0.5532564141411787
            ],
            "bias": 0.7625550845796251
        },
        {
            "id": "2.14",
            "weights": [
                0.608632485873844,
                -0.007004248716638742,
                0.11956631436489226,
                1.2913640971127014,
                -0.5797242423082772,
                0.5601796605104243,
                -0.19149558920647722,
                -0.21985720210432363,
                1.0969308761152494,
                0.8260473522031817,
                0.8088127494231998,
                1.3218744026631943,
                0.033050293543530444,
                0.6797486864886757,
                -0.31543569115018355,
                0.3372894525018782
            ],
            "bias": -0.11947500624784288
        },
        {
            "id": "2.15",
            "weights": [
                0.14828674368164663,
                0.580890258884537,
                -0.8423601499347101,
                2.0700044749812774,
                -0.9927057802629502,
                -1.2458246070861814,
                1.18582147681214,
                0.8830595942244968,
                0.6986064178951695,
                0.663458599911492,
                0.08418125698301687,
                -0.9170890085690266,
                0.1321673899024174,
                -0.6256808980984438,
                1.0245949151355132,
                -0.16987462973056325
            ],
            "bias": -0.7907248913124759
        },
        {
            "id": "2.16",
            "weights": [
                -0.2978396812981921,
                0.2762153904179641,
                -0.5760834199809661,
                -0.9596358338805858,
                0.17209187463212014,
                0.10112362680092771,
                -0.6421800486728201,
                -0.4306728040675909,
                0.21929146259483084,
                -1.4409212459968852,
                -1.37874603941749,
                -0.8662389013767536,
                -0.2522652818859725,
                0.3109373018818756,
                1.5035274271257744,
                0.711278243754331
            ],
            "bias": -0.27533283716847323
        }
    ],
    [
        {
            "id": "3.1",
            "weights": [
                -0.22136287670950297,
                -2.3321440453665594,
                0.2806564430846047,
                -0.5057703697009027,
                0.22757380318836856,
                -2.860914339869713,
                0.8668057177132595,
                1.7311804266793993,
                -0.4095248023396495,
                0.9164079318976597,
                0.973940154303342,
                -1.1256754119362735,
                -0.21337628644924408,
                0.30241244096794373,
                -0.4919556284924229,
                -0.5484274209456375
            ],
            "bias": 0.32727579763179526
        }
    ]
]