[
    [
        {
            "id": "1.1",
            "weights": [
                1.0188268102670563
            ],
            "bias": 1.587261949203444
        },
        {
            "id": "1.2",
            "weights": [
                0.7797745918816824
            ],
            "bias": 2.784355792366395
        },
        {
            "id": "1.3",
            "weights": [
                0.46971713804918314
            ],
            "bias": 6.749943564501222
        },
        {
            "id": "1.4",
            "weights": [
                -3.515344667624468
            ],
            "bias": 1.8250015023586057
        },
        {
            "id": "1.5",
            "weights": [
                1.1710000202857818
            ],
            "bias": 1.6227903632070793
        },
        {
            "id": "1.6",
            "weights": [
                -0.9143393126117577
            ],
            "bias": -1.9087318534946813
        },
        {
            "id": "1.7",
            "weights": [
                -0.8351496027234389
            ],
            "bias": -1.1066295777072288
        },
        {
            "id": "1.8",
            "weights": [
                1.1318982539072855
            ],
            "bias": 0.9649233587671413
        },
        {
            "id": "1.9",
            "weights": [
                -1.871463077516399
            ],
            "bias": -1.5884573163802354
        },
        {
            "id": "1.10",
            "weights": [
                -1.6878533478583655
            ],
            "bias": -0.4862243231182415
        },
        {
            "id": "1.11",
            "weights": [
                1.293565757085977
            ],
            "bias": 1.450282189620992
        },
        {
            "id": "1.12",
            "weights": [
                0.9145786911273853
            ],
            "bias": 1.484353987906646
        },
        {
            "id": "1.13",
            "weights": [
                0.6809825058848894
            ],
            "bias": 3.8211537178863444
        },
        {
            "id": "1.14",
            "weights": [
                -3.53124457518606
            ],
            "bias": -1.4772358655073767
        },
        {
            "id": "1.15",
            "weights": [
                -0.8435176350823708
            ],
            "bias": -2.5028194834855664
        },
        {
            "id": "1.16",
            "weights": [
                -3.3583084702923194
            ],
            "bias": 9.838163570740823
        }
    ],
    [
        {
            "id": "2.1",
            "weights": [
                2.3647703254520107,
                0.3216957868983823,
                0.006593270542189125,
                -0.5269826842220193,
                1.9812006730214633,
                0.6934761185073716,
                -0.5432773014330234,
                1.4977690659968081,
                0.550731268637798,
                1.0283338179152424,
                0.24481728947402623,
                0.6128308856110667,
                -0.2207307329171898,
                -1.502526033220921,
                0.2650257592846906,
                0.2269845863199579
            ],
            "bias": 0.9440337685380865
        },
        {
            "id": "2.2",
            "weights": [
                -0.6170229551264484,
                -4.5915838768309225,
                0.7437913819135759,
                -1.14987366565036,
                -1.0536745520338622,
                -0.9726499215715495,
                -0.022992769287359598,
                2.981162397920426,
                0.5721814883757709,
                -0.4982821331364696,
                -0.8337494893215252,
                -2.902367591705161,
                -0.5405703260650248,
                6.799583027334334,
                2.8668540394828472,
                3.281200591752302
            ],
            "bias": -0.4911707648692008
        },
        {
            "id": "2.3",
            "weights": [
                -0.6711228799396668,
                -3.7030146726676167,
                1.2294473664123113,
                0.3555758973155188,
                2.862705979375885,
                -1.702971296347028,
                1.2090565217778604,
                -3.3376537467293597,
                6.544349469378823,
                1.9526626320438907,
                -1.8678515726766514,
                -1.3352775086092097,
                -0.4176177695582091,
                0.1039115425470827,
                -1.4238204491545394,
                -0.3366228606775735
            ],
            "bias": -1.9779077267107017
        },
        {
            "id": "2.4",
            "weights": [
                1.259092734613636,
                -0.1796877813882512,
                1.8941427542415292,
                -0.810336536116914,
                0.42229472385727895,
                1.3545256820261153,
                -1.2437245997070359,
                0.987554423295738,
                1.6304933929728527,
                -1.6273440318290313,
                1.0214325879804398,
                1.0342422052770883,
                0.8127179654036373,
                -0.9207634963339218,
                -1.7456734966067717,
                0.48264140643424003
            ],
            "bias": 1.0667555360936007
        },
        {
            "id": "2.5",
            "weights": [
                1.0064174880564303,
                1.2072985273633865,
                -0.03491719483274473,
                0.22426336378902664,
                1.1908603474346797,
                -0.4216941077390104,
                1.8606893934783522,
                1.34417531666132,
                -1.1162393217474598,
                0.7428170145779822,
                -0.2400066256968889,
                1.545497189991154,
                1.1921333325797572,
                -0.860417864656982,
                1.0020803284983832,
                0.4282874820426508
            ],
            "bias": 1.6011221588380222
        },
        {
            "id": "2.6",
            "weights": [
                2.403268517296212,
                0.3274440948554408,
                -0.5163261849016105,
                -0.859806218785834,
                -0.25096933221538964,
                0.3463734932760883,
                0.3505045261307893,
                0.8237559701364072,
                1.0275885464527954,
                0.017165399919681773,
                2.034752803545641,
                0.3130681801069459,
                2.7771439484073888,
                0.8142089956419953,
                -0.8523554993160503,
                -0.9952922559702397
            ],
            "bias": 1.0640932575510604
        },
        {
            "id": "2.7",
            "weights": [
                0.7434014649939609,
                2.227445229187087,
                0.9255619768064762,
                -0.2576223919193654,
                -0.018619320238108802,
                -0.980437110279288,
                -0.5242152279809059,
                1.7866829594744378,
                0.33322399388786833,
                -1.4157230798250184,
                1.141322740393586,
                1.1961149306089798,
                -0.9433422224006114,
                0.3623416958366038,
                -0.06091168673478766,
                -1.3967036782468973
            ],
            "bias": 1.1377512846964148
        },
        {
            "id": "2.8",
            "weights": [
                0.09804437619433343,
                1.1261772685760871,
                3.5884603206697037,
                -1.402115224130358,
                -1.232620803078004,
                0.39091981049458085,
                0.5574739895410371,
                0.3338491710295219,
                9.479865854672594,
                0.6311550912367164,
                0.9731890727644175,
                0.4474661445236439,
                3.124624294564407,
                -1.0430889542284103,
                0.651482162448189,
                -0.5949710331110091
            ],
            "bias": -0.6112572997186584
        },
        {
            "id": "2.9",
            "weights": [
                0.20992303107729673,
                0.6846206954797384,
                2.381581907931589,
                -1.9880651443672965,
                1.1344367193823441,
                -0.9663252721585592,
                -0.535829737546849,
                1.6272682844297996,
                0.17102399615140587,
                -1.1728787114953427,
                -0.0931741992811535,
                1.2958675018291614,
                -0.9028841009389125,
                0.5968393813806528,
                0.10665357206938689,
                -0.7974089510315155
            ],
            "bias": 2.717553885544649
        },
        {
            "id": "2.10",
            "weights": [
                0.23594354368060874,
                -3.145860542114795,
                7.118717516408079,
                -2.3944047510506086,
                1.1280399615304155,
                -0.6653614784391909,
                0.061703184593938434,
                0.1832233940839747,
                1.1284358378976067,
                -1.308201871208793,
                -0.17114640159841524,
                -0.4826528066604754,
                0.3502105335922606,
                9.091593199941455,
                0.7878104271601879,
                -4.855922631672362
            ],
            "bias": 1.1439158402830878
        },
        {
            "id": "2.11",
            "weights": [
                3.2573833181841505,
                1.7695827102094166,
                -0.17575155336837778,
                0.11273928240843356,
                6.028478086906352,
                -3.079409020987558,
                0.7674565844473492,
                1.9809361196020452,
                -1.4489016141313829,
                0.399860516459351,
                -3.4878169780088135,
                -1.5577523097515777,
                0.4915815472861057,
                -2.717109835745534,
                2.1589188145768383,
                -1.3303444693872883
            ],
            "bias": -0.14836549410807087
        },
        {
            "id": "2.12",
            "weights": [
                1.3944933393791508,
                2.589489439969798,
                -1.1934992518657908,
                1.1727053366825557,
                1.4136812062122648,
                0.3134676924742328,
                0.42493735271045846,
                1.0771838783402583,
                0.202767435804855,
                0.02861054376831207,
                0.979375655028738,
                1.4633818450336922,
                0.7755922345816972,
                5.722860959853148,
                -1.1815973332434009,
                2.237279455705088
            ],
            "bias": -0.5497107580849494
        },
        {
            "id": "2.13",
            "weights": [
                0.3408383841766398,
                1.3510157053238394,
                0.39691638803437407,
                -0.6729689185830001,
                0.267530787752076,
                -0.039626566347165985,
                -0.6119686201860715,
                1.353556671002272,
                0.45163845117278967,
                -0.7432137431587258,
                1.6338801690831897,
                0.7634689661985447,
                0.8475652980442604,
                0.9787564861857424,
                -1.130315522436566,
                -0.627438640984777
            ],
            "bias": 1.196835370421032
        },
        {
            "id": "2.14",
            "weights": [
                1.3015781282961285,
                0.7349271784605523,
                0.4239684711224176,
                1.273022365142082,
                0.11815062675541266,
                1.023339178047307,
                -0.20941571130331293,
                0.5034316627207959,
                1.3422730661021627,
                0.8403214079768809,
                1.705821439309679,
                2.0028446467145087,
                0.23153924784764923,
                0.9881770870176811,
                -0.44525494279330224,
                0.3134585121944493
            ],
            "bias": 0.588149175176388
        },
        {
            "id": "2.15",
            "weights": [
                1.3123932823787154,
                1.8534366767294628,
                0.08157680915401244,
                2.125386689446342,
                0.26883448126407716,
                -0.20567507006933755,
                1.167024152573867,
                2.0694974247337146,
                1.5225783154573278,
                0.6391092205592203,
                1.2844820647680082,
                0.4040593942479203,
                0.21727036467120298,
                0.0072790423088732225,
                1.0021674795593025,
                -0.08094956355658496
            ],
            "bias": 0.48222301538741197
        },
        {
            "id": "2.16",
            "weights": [
                -0.6346480263323215,
                -0.1995074095116911,
                -0.6216455942045961,
                -0.8684972111045932,
                -0.8525851251666997,
                -0.12016404828296467,
                -0.5733856033322905,
                -0.9711381885867693,
                2.0234219366306756,
                -1.5617742225328852,
                -2.1485580454984885,
                -1.3681231812565173,
                -0.24283250180717217,
                0.5012579730147626,
                5.159132441725028,
                0.9078770904376987
            ],
            "bias": -0.458878296939417
        }
    ],
    [
        {
            "id": "3.1",
            "weights": [
                -0.8515859461950275,
                -5.581233562549335,
                -8.239902765812376,
                -0.6217974184059427,
                -0.622799053349665,
                -1.8746649974803575,
                -0.9769034838149822,
                6.853752023652275,
                -1.7294743407855233,
                8.043763725988992,
                3.9605822212079187,
                -3.608742813914996,
                -0.9414247530110766,
                -1.3898319793734577,
                -1.207792871630677,
                -5.953260714584034
            ],
            "bias": -1.6773499376728536
        }
    ]
]